double apply_LGBM(double * input) {
    double var0;
    if (input[244] <= -0.49999999999999994) {
        if (input[144] <= -0.9666666666666666) {
            if (input[264] <= -0.9666666666666666) {
                if (input[184] <= -1.4999999999999998) {
                    var0 = 0.7160600708785574;
                } else {
                    var0 = 0.7112552371816195;
                }
            } else {
                if (input[404] <= -0.6333333333333332) {
                    var0 = 0.7084923393614623;
                } else {
                    var0 = 0.7025185559454956;
                }
            }
        } else {
            if (input[94] <= -0.6999999999999998) {
                if (input[463] > 1.4153263221586208) {
                    var0 = 0.7144054470865026;
                } else {
                    if (input[110] > 0.6645448531700736) {
                        var0 = 0.7070385058610855;
                    } else {
                        var0 = 0.7037898794224373;
                    }
                }
            } else {
                if (input[259] <= -0.7666666666666665) {
                    if (input[251] <= -0.30730723658823084) {
                        var0 = 0.7103152861782913;
                    } else {
                        var0 = 0.7051528457890474;
                    }
                } else {
                    if (input[548] <= -0.21948566987810256) {
                        var0 = 0.7015457129504913;
                    } else {
                        var0 = 0.7044896503932812;
                    }
                }
            }
        }
    } else {
        if (input[114] > 0.000000000000000000000000000000000010000000180025095) {
            if (input[526] <= -1.457286656124093) {
                if (input[265] <= -0.5011900145234994) {
                    if (input[318] > 3.430917089730612) {
                        var0 = 0.7084168054525237;
                    } else {
                        var0 = 0.7022279211517428;
                    }
                } else {
                    var0 = 0.7095130863173169;
                }
            } else {
                if (input[96] <= -0.6103513961106429) {
                    if (input[474] > 1.6333333333333335) {
                        var0 = 0.7058498017859363;
                    } else {
                        if (input[545] <= -0.5572441554027686) {
                            if (input[131] <= -1.3450492364944708) {
                                var0 = 0.7026404728322917;
                            } else {
                                var0 = 0.6977308510316703;
                            }
                        } else {
                            if (input[93] > 0.894358805751211) {
                                var0 = 0.703348684925104;
                            } else {
                                var0 = 0.6998814966008864;
                            }
                        }
                    }
                } else {
                    if (input[370] <= -0.3103065644297463) {
                        if (input[473] > 0.5708283551374668) {
                            if (input[359] > 1.1666666666666667) {
                                var0 = 0.695621452838685;
                            } else {
                                var0 = 0.6988737802049969;
                            }
                        } else {
                            var0 = 0.6962442394909627;
                        }
                    } else {
                        if (input[108] > 0.7313746561600915) {
                            if (input[315] <= -0.13881820752049737) {
                                var0 = 0.7004110670088632;
                            } else {
                                var0 = 0.7073034684397405;
                            }
                        } else {
                            if (input[170] <= -0.04671985817931281) {
                                var0 = 0.6975781828076925;
                            } else {
                                var0 = 0.6996141671375334;
                            }
                        }
                    }
                }
            }
        } else {
            if (input[209] <= -0.4333333333333333) {
                if (input[366] <= -1.0169634896764994) {
                    var0 = 0.7083641175053147;
                } else {
                    if (input[335] > 0.31384975824406325) {
                        if (input[308] > 0.007249792930453655) {
                            if (input[398] <= -0.25539086264368355) {
                                var0 = 0.7034775143660383;
                            } else {
                                var0 = 0.7102523614600149;
                            }
                        } else {
                            var0 = 0.7031315598878412;
                        }
                    } else {
                        var0 = 0.7011129177197912;
                    }
                }
            } else {
                if (input[161] <= -0.9121848925735112) {
                    if (input[299] <= -0.36666666666666664) {
                        var0 = 0.7082644177005712;
                    } else {
                        var0 = 0.7030617670071343;
                    }
                } else {
                    if (input[390] > 0.43991712193491384) {
                        var0 = 0.7024537121767779;
                    } else {
                        if (input[448] > 0.0822669810956045) {
                            var0 = 0.7010621585323098;
                        } else {
                            var0 = 0.6991826101372446;
                        }
                    }
                }
            }
        }
    }
    double var1;
    if (input[299] <= -0.36666666666666664) {
        if (input[334] <= -0.8999999999999999) {
            if (input[69] <= -1.2333333333333332) {
                var1 = 0.008063761610684153;
            } else {
                if (input[119] <= -0.8333333333333333) {
                    var1 = 0.005459797203232381;
                } else {
                    if (input[443] <= -0.4381879927538978) {
                        var1 = 0.0012291661017032086;
                    } else {
                        var1 = 0.004072144429025324;
                    }
                }
            }
        } else {
            if (input[244] <= -0.49999999999999994) {
                if (input[338] > 2.075766866379579) {
                    var1 = 0.007343079939619447;
                } else {
                    if (input[85] > 1.1864290924192331) {
                        if (input[355] > 1.0267274591132325) {
                            var1 = 0.004847113059028082;
                        } else {
                            var1 = 0.002399223462452807;
                        }
                    } else {
                        if (input[303] > 0.000000000000000000000000000000000010000000180025095) {
                            var1 = 0.0032475459018367226;
                        } else {
                            if (input[505] > 0.6685463639196755) {
                                var1 = 0.0021470215538953357;
                            } else {
                                var1 = 0.00006514202336727827;
                            }
                        }
                    }
                }
            } else {
                if (input[91] <= -0.6867103250134269) {
                    if (input[128] > 0.45667786637545443) {
                        var1 = 0.0019323746255760735;
                    } else {
                        var1 = 0.006110909440231963;
                    }
                } else {
                    if (input[150] > 0.18298834204577943) {
                        var1 = 0.0007514774108569155;
                    } else {
                        var1 = -0.0009095812634481538;
                    }
                }
            }
        }
    } else {
        if (input[114] > 0.10000000000000002) {
            if (input[526] <= -1.457286656124093) {
                if (input[265] <= -0.5011900145234994) {
                    if (input[318] > 3.430917089730612) {
                        var1 = 0.004712250147828404;
                    } else {
                        var1 = 0.0004879386007430174;
                    }
                } else {
                    var1 = 0.005710847951324531;
                }
            } else {
                if (input[191] <= -0.6299035155046507) {
                    if (input[115] <= -1.0125042328772271) {
                        var1 = 0.00218654918500969;
                    } else {
                        if (input[75] <= -0.21448449813117995) {
                            var1 = -0.0017295946007758083;
                        } else {
                            if (input[263] > 0.2367934359667027) {
                                var1 = 0.0035733648380550757;
                            } else {
                                var1 = -0.0015915711589977834;
                            }
                        }
                    }
                } else {
                    if (input[310] <= -0.441830011229646) {
                        if (input[488] > 1.1569056128761794) {
                            if (input[386] <= -0.2325084445687514) {
                                var1 = -0.0027509884661658848;
                            } else {
                                var1 = 0.0010020467176901234;
                            }
                        } else {
                            var1 = -0.003494666523398897;
                        }
                    } else {
                        if (input[193] > 1.0194888464691463) {
                            var1 = 0.0022045360886125786;
                        } else {
                            if (input[528] > 0.32255123483049286) {
                                var1 = -0.0012274156190111025;
                            } else {
                                var1 = -0.002509458926638961;
                            }
                        }
                    }
                }
            }
        } else {
            if (input[480] > 0.48118849211396725) {
                if (input[146] <= -0.6038616313422114) {
                    var1 = 0.004610787922568364;
                } else {
                    if (input[60] > 0.7936848045814314) {
                        var1 = 0.002688038788667302;
                    } else {
                        var1 = 0.0002981063287571954;
                    }
                }
            } else {
                if (input[353] > 0.681240084991173) {
                    if (input[391] <= -1.8387557702646837) {
                        var1 = 0.004346789565695909;
                    } else {
                        if (input[110] > 0.20700265802476062) {
                            var1 = 0.003100864680683108;
                        } else {
                            var1 = -0.000004641768012436309;
                        }
                    }
                } else {
                    if (input[330] > 0.3292584248270611) {
                        if (input[95] > 0.17108719001597208) {
                            var1 = 0.0009444422410766574;
                        } else {
                            var1 = -0.0012665926842465878;
                        }
                    } else {
                        var1 = -0.0014424513848253406;
                    }
                }
            }
        }
    }
    double var2;
    if (input[299] <= -0.36666666666666664) {
        if (input[144] <= -0.9666666666666666) {
            if (input[469] <= -0.9666666666666666) {
                if (input[184] <= -1.4999999999999998) {
                    var2 = 0.015020528990711587;
                } else {
                    var2 = 0.009850422971705557;
                }
            } else {
                if (input[404] <= -0.6333333333333332) {
                    var2 = 0.007139527672129085;
                } else {
                    var2 = 0.0014445775035094486;
                }
            }
        } else {
            if (input[394] <= -0.6333333333333332) {
                if (input[266] <= -1.4893365617760297) {
                    var2 = 0.012768656388105851;
                } else {
                    if (input[250] > 1.8835010833018784) {
                        var2 = 0.008281940747699659;
                    } else {
                        if (input[115] > 0.8646951305244407) {
                            var2 = 0.005163915042594176;
                        } else {
                            if (input[548] <= -0.08504783291579604) {
                                var2 = 0.0009844437248849628;
                            } else {
                                var2 = 0.004660434147931002;
                            }
                        }
                    }
                }
            } else {
                if (input[163] > 0.3066398123419735) {
                    if (input[50] > 0.7591126257383641) {
                        var2 = 0.009702065809309131;
                    } else {
                        var2 = 0.003551756653692658;
                    }
                } else {
                    if (input[389] <= -0.32142857142857134) {
                        if (input[423] > 0.10586637761135197) {
                            if (input[539] <= -0.3928571428571428) {
                                var2 = 0.007884675213564216;
                            } else {
                                var2 = 0.0012928195666797328;
                            }
                        } else {
                            var2 = 0.0009497484597743424;
                        }
                    } else {
                        var2 = -0.0010723307435435436;
                    }
                }
            }
        }
    } else {
        if (input[114] > 0.10000000000000002) {
            if (input[526] <= -1.457286656124093) {
                if (input[265] <= -0.5011900145234994) {
                    if (input[318] > 3.430917089730612) {
                        var2 = 0.007336066713974687;
                    } else {
                        var2 = 0.0007596265279965198;
                    }
                } else {
                    var2 = 0.008890691593437713;
                }
            } else {
                if (input[486] <= -0.5118886726588242) {
                    if (input[221] <= -0.7110270900661914) {
                        if (input[474] > 1.366666666666667) {
                            var2 = 0.004460768260118649;
                        } else {
                            if (input[405] <= -0.4024681034839216) {
                                var2 = -0.0023188346309991298;
                            } else {
                                var2 = 0.0020313817597006983;
                            }
                        }
                    } else {
                        if (input[335] <= -0.1963772479476841) {
                            var2 = -0.0035674614218935675;
                        } else {
                            var2 = 0.0002367861686249125;
                        }
                    }
                } else {
                    if (input[330] <= -0.5126816652916161) {
                        var2 = -0.005569991368099575;
                    } else {
                        if (input[193] > 0.4014821712485142) {
                            if (input[489] > 0.8928571428571429) {
                                var2 = 0.004795635922462153;
                            } else {
                                var2 = -0.001928831366984459;
                            }
                        } else {
                            var2 = -0.003930335707850854;
                        }
                    }
                }
            }
        } else {
            if (input[81] <= -1.6745800346889705) {
                var2 = 0.006826428628083156;
            } else {
                if (input[270] > 0.3229270073930267) {
                    if (input[335] > 0.4474475388285699) {
                        var2 = 0.0025646550799246636;
                    } else {
                        if (input[388] > 0.573403525462549) {
                            var2 = 0.004608304080236733;
                        } else {
                            var2 = -0.0006947893584860655;
                        }
                    }
                } else {
                    if (input[111] <= -0.39746551706920946) {
                        if (input[400] > 0.2859761062633946) {
                            var2 = 0.004257484948309998;
                        } else {
                            var2 = -0.00017318611402467623;
                        }
                    } else {
                        if (input[285] > 0.2885673367494414) {
                            if (input[218] <= -0.07829027289008006) {
                                var2 = -0.0017222547933796414;
                            } else {
                                var2 = 0.0023137353796666657;
                            }
                        } else {
                            var2 = -0.0029259781146064147;
                        }
                    }
                }
            }
        }
    }
    double var3;
    if (input[244] <= -0.49999999999999994) {
        if (input[414] <= -0.9666666666666666) {
            if (input[84] <= -1.2333333333333332) {
                var3 = 0.008340982580278069;
            } else {
                if (input[529] <= -1.2333333333333332) {
                    var3 = 0.006866035034601703;
                } else {
                    if (input[76] <= -0.7860321026135814) {
                        var3 = 0.007898312517848205;
                    } else {
                        var3 = 0.0036817260319081816;
                    }
                }
            }
        } else {
            if (input[264] <= -0.7666666666666665) {
                if (input[114] <= -0.7666666666666665) {
                    var3 = 0.00447836495191587;
                } else {
                    var3 = 0.002383584515149235;
                }
            } else {
                if (input[191] <= -0.5063015929933254) {
                    var3 = 0.0030700673962076163;
                } else {
                    if (input[529] <= -0.49999999999999994) {
                        var3 = 0.001867969900347988;
                    } else {
                        var3 = 0.00011665116600439208;
                    }
                }
            }
        }
    } else {
        if (input[114] > 0.000000000000000000000000000000000010000000180025095) {
            if (input[466] <= -1.0577798935610037) {
                if (input[161] <= -1.6298451532035012) {
                    if (input[465] <= -0.7758075520063092) {
                        var3 = 0.00501592665445031;
                    } else {
                        var3 = 0.0011955780140801586;
                    }
                } else {
                    var3 = 0.00005025088161187755;
                }
            } else {
                if (input[164] > 0.5666666666666668) {
                    if (input[486] <= -0.544384682957063) {
                        if (input[115] <= -0.9864252730798082) {
                            var3 = 0.0011384303319502006;
                        } else {
                            var3 = -0.0020413690823170225;
                        }
                    } else {
                        if (input[253] > 0.659009060706735) {
                            if (input[330] <= -0.5126816652916161) {
                                var3 = -0.0031096054522172737;
                            } else {
                                var3 = 0.0011526960411447694;
                            }
                        } else {
                            if (input[90] <= -0.6572860547099196) {
                                var3 = -0.004506943870585369;
                            } else {
                                var3 = -0.0031291813550753983;
                            }
                        }
                    }
                } else {
                    if (input[223] > 0.5252272450482166) {
                        if (input[110] <= -0.13245693680605972) {
                            if (input[210] <= -0.12075383895319726) {
                                var3 = -0.0016299813099130034;
                            } else {
                                var3 = 0.0010458426803831985;
                            }
                        } else {
                            var3 = 0.0022969808608493836;
                        }
                    } else {
                        if (input[179] <= -0.09999999999999999) {
                            if (input[313] > 0.44549059858547474) {
                                var3 = 0.002742503615242895;
                            } else {
                                var3 = -0.001381838085497118;
                            }
                        } else {
                            var3 = -0.0024079305619748095;
                        }
                    }
                }
            }
        } else {
            if (input[209] <= -0.4333333333333333) {
                if (input[366] <= -1.0169634896764994) {
                    var3 = 0.00443375731418756;
                } else {
                    if (input[479] <= -0.5666666666666665) {
                        if (input[473] <= -0.257986254790134) {
                            var3 = 0.0008431776742243464;
                        } else {
                            var3 = 0.003717950256870598;
                        }
                    } else {
                        var3 = 0.000364783527323567;
                    }
                }
            } else {
                if (input[56] <= -0.8055021444273051) {
                    if (input[155] > 0.000000000000000000000000000000000010000000180025095) {
                        if (input[420] > 0.17357505378140733) {
                            var3 = 0.006305015023859556;
                        } else {
                            var3 = 0.0012093432900334962;
                        }
                    } else {
                        if (input[266] <= -1.549213773485304) {
                            var3 = 0.003761586620464245;
                        } else {
                            var3 = -0.00019858471305875264;
                        }
                    }
                } else {
                    if (input[285] > 0.2885673367494414) {
                        if (input[463] > 0.7093695292453058) {
                            var3 = 0.003505240321943367;
                        } else {
                            if (input[125] > 0.8266920304365238) {
                                var3 = 0.0027523099478171634;
                            } else {
                                var3 = -0.00039328866669878883;
                            }
                        }
                    } else {
                        var3 = -0.0011833703742644799;
                    }
                }
            }
        }
    }
    double var4;
    if (input[189] <= -0.36666666666666664) {
        if (input[244] <= -0.7666666666666665) {
            if (input[114] <= -1.0999999999999999) {
                if (input[80] > 2.5728192766650424) {
                    var4 = 0.012505440890039443;
                } else {
                    if (input[438] <= -0.1650079882838504) {
                        var4 = 0.007090406052087184;
                    } else {
                        var4 = 0.010386764148188971;
                    }
                }
            } else {
                if (input[338] > 2.075766866379579) {
                    var4 = 0.011236123436110862;
                } else {
                    if (input[255] > 1.0529783044400554) {
                        if (input[530] > 1.8327713551701985) {
                            var4 = 0.009105024509983637;
                        } else {
                            var4 = 0.004998230063419527;
                        }
                    } else {
                        var4 = 0.00282219990031332;
                    }
                }
            }
        } else {
            if (input[384] <= -0.4333333333333333) {
                if (input[366] <= -0.13980269241782103) {
                    if (input[190] > 1.2370766585408315) {
                        var4 = 0.009087774054681093;
                    } else {
                        var4 = 0.004315107850386423;
                    }
                } else {
                    if (input[125] > 0.7277002673478442) {
                        var4 = 0.0034130860554058614;
                    } else {
                        var4 = 0.0005609989764566429;
                    }
                }
            } else {
                if (input[441] > 0.32308178668159365) {
                    var4 = -0.0009594180461921426;
                } else {
                    if (input[419] <= -0.29999999999999993) {
                        var4 = 0.0031529517655059696;
                    } else {
                        var4 = -0.00032960779216318476;
                    }
                }
            }
        }
    } else {
        if (input[526] <= -1.457286656124093) {
            if (input[56] <= -2.042655756434324) {
                var4 = 0.007557048054643127;
            } else {
                if (input[385] <= -0.523319725970569) {
                    var4 = 0.0013093284034189233;
                } else {
                    if (input[149] <= -0.000000000000000000000000000000000010000000180025095) {
                        var4 = 0.0022335247930342396;
                    } else {
                        var4 = 0.00937133935889972;
                    }
                }
            }
        } else {
            if (input[114] > 0.10000000000000002) {
                if (input[96] <= -0.6471740692031801) {
                    if (input[474] > 1.6333333333333335) {
                        var4 = 0.0047324187449042055;
                    } else {
                        if (input[545] <= -0.5572441554027686) {
                            var4 = -0.0027788828996043445;
                        } else {
                            if (input[93] > 0.894358805751211) {
                                var4 = 0.002170957195251307;
                            } else {
                                var4 = -0.0014813180153244428;
                            }
                        }
                    }
                } else {
                    if (input[90] <= -0.415738588184905) {
                        if (input[66] <= -1.0326853424175515) {
                            var4 = -0.000004303856362487672;
                        } else {
                            if (input[378] > 1.2240371799576946) {
                                var4 = -0.0023626097061269064;
                            } else {
                                var4 = -0.004886533444249334;
                            }
                        }
                    } else {
                        if (input[348] > 0.33529462118694414) {
                            if (input[345] <= -0.07782261026717595) {
                                var4 = -0.0019714183160595743;
                            } else {
                                var4 = 0.0014737534339137332;
                            }
                        } else {
                            if (input[85] <= -0.13738837266295453) {
                                var4 = -0.0040827923793342515;
                            } else {
                                var4 = -0.002384107916750627;
                            }
                        }
                    }
                }
            } else {
                if (input[330] > 0.3545260335869738) {
                    if (input[108] > 0.08914880412336564) {
                        if (input[275] > 0.6684051731708603) {
                            var4 = 0.008440621379523746;
                        } else {
                            var4 = 0.002549436991112864;
                        }
                    } else {
                        var4 = -0.000063616911013365;
                    }
                } else {
                    if (input[61] <= -0.6312238283324552) {
                        var4 = 0.0009571725463764582;
                    } else {
                        if (input[345] > 0.27497937484266693) {
                            if (input[188] > 0.3305036410070271) {
                                var4 = 0.003380911539534905;
                            } else {
                                var4 = -0.000918161393303481;
                            }
                        } else {
                            var4 = -0.002267456257218156;
                        }
                    }
                }
            }
        }
    }
    double var5;
    if (input[299] <= -0.36666666666666664) {
        if (input[334] <= -0.8999999999999999) {
            if (input[69] <= -1.2333333333333332) {
                var5 = 0.013842659615905063;
            } else {
                if (input[119] <= -0.8333333333333333) {
                    var5 = 0.009337718870327104;
                } else {
                    if (input[548] <= -0.03504977758000679) {
                        var5 = 0.0034212234772939424;
                    } else {
                        var5 = 0.009105424762361508;
                    }
                }
            }
        } else {
            if (input[244] <= -0.49999999999999994) {
                if (input[258] > 1.554992476820633) {
                    var5 = 0.011446475975185832;
                } else {
                    if (input[355] > 1.0267274591132325) {
                        if (input[85] > 1.3609209319756124) {
                            var5 = 0.009175898384084575;
                        } else {
                            var5 = 0.004548280730531623;
                        }
                    } else {
                        if (input[148] <= -0.5160091486477966) {
                            var5 = 0.00020213685831270767;
                        } else {
                            if (input[473] <= -0.5379825734731113) {
                                var5 = 0.00031970779732659046;
                            } else {
                                var5 = 0.004948432062614757;
                            }
                        }
                    }
                }
            } else {
                if (input[91] <= -0.6867103250134269) {
                    if (input[128] > 0.45667786637545443) {
                        var5 = 0.0032065217631050964;
                    } else {
                        var5 = 0.010950844659363853;
                    }
                } else {
                    if (input[150] > 0.18298834204577943) {
                        var5 = 0.001260557156041312;
                    } else {
                        var5 = -0.0016895094015280487;
                    }
                }
            }
        }
    } else {
        if (input[114] > 0.10000000000000002) {
            if (input[106] <= -0.9603002904610919) {
                if (input[316] <= -1.83293051988387) {
                    var5 = 0.007820318291864256;
                } else {
                    if (input[471] <= -1.669766027691131) {
                        var5 = 0.004698722148174087;
                    } else {
                        var5 = -0.0008714704631039157;
                    }
                }
            } else {
                if (input[349] > 0.6071428571428573) {
                    if (input[198] > 0.9124018095365861) {
                        if (input[330] <= -0.5270609887668968) {
                            if (input[301] <= -0.7483781877810648) {
                                var5 = -0.0008805419032965544;
                            } else {
                                var5 = -0.005085844292284141;
                            }
                        } else {
                            var5 = 0.002739537544777452;
                        }
                    } else {
                        var5 = -0.005941449427818872;
                    }
                } else {
                    if (input[348] > 0.33529462118694414) {
                        if (input[345] > 0.1266437722084023) {
                            var5 = 0.005321681992891973;
                        } else {
                            var5 = -0.0021130831876476283;
                        }
                    } else {
                        var5 = -0.004056914898445657;
                    }
                }
            }
        } else {
            if (input[480] > 0.48118849211396725) {
                if (input[146] <= -0.6038616313422114) {
                    var5 = 0.008377395344180565;
                } else {
                    if (input[60] > 0.8427471348405294) {
                        var5 = 0.004885091226233755;
                    } else {
                        var5 = 0.0005668305488598164;
                    }
                }
            } else {
                if (input[328] > 0.6508037690325786) {
                    if (input[420] > 0.12435076773669311) {
                        var5 = 0.006501596076623247;
                    } else {
                        if (input[396] <= -1.2844213761561936) {
                            if (input[320] <= -0.42453508809701945) {
                                var5 = 0.007982560997373928;
                            } else {
                                var5 = 0.0009299951564689929;
                            }
                        } else {
                            var5 = -0.0013128561260392225;
                        }
                    }
                } else {
                    if (input[170] > 0.4572693119092373) {
                        if (input[275] > 0.4023463495266513) {
                            if (input[106] > 0.000000000000000000000000000000000010000000180025095) {
                                var5 = 0.0007414860387511839;
                            } else {
                                var5 = 0.008985597176151352;
                            }
                        } else {
                            var5 = -0.0009864086114413717;
                        }
                    } else {
                        if (input[161] <= -1.0624246281854177) {
                            var5 = 0.004987741151033803;
                        } else {
                            var5 = -0.002713641607493882;
                        }
                    }
                }
            }
        }
    }
    double var6;
    if (input[299] <= -0.36666666666666664) {
        if (input[144] <= -0.9666666666666666) {
            if (input[469] <= -0.9666666666666666) {
                if (input[184] <= -1.4999999999999998) {
                    var6 = 0.00908707513567997;
                } else {
                    var6 = 0.005891928118319817;
                }
            } else {
                if (input[404] <= -0.6333333333333332) {
                    var6 = 0.00427656420144104;
                } else {
                    var6 = 0.0007683339267396952;
                }
            }
        } else {
            if (input[394] <= -0.6333333333333332) {
                if (input[266] <= -1.4893365617760297) {
                    var6 = 0.007818249159227113;
                } else {
                    if (input[235] > 0.8670087183922303) {
                        if (input[173] <= -0.18534494769873464) {
                            var6 = 0.002843856101129428;
                        } else {
                            var6 = 0.004994830538448547;
                        }
                    } else {
                        var6 = 0.001731249637307277;
                    }
                }
            } else {
                if (input[163] > 0.3066398123419735) {
                    if (input[50] > 0.7591126257383641) {
                        var6 = 0.0060432471963424795;
                    } else {
                        var6 = 0.0021312600634635424;
                    }
                } else {
                    if (input[75] > 0.3727757274410834) {
                        if (input[433] <= -0.15029590069284074) {
                            var6 = 0.00033923328300147396;
                        } else {
                            if (input[526] > 0.026775387651542595) {
                                var6 = 0.0010337434433145452;
                            } else {
                                var6 = 0.005579024202409369;
                            }
                        }
                    } else {
                        var6 = -0.0006016259583074209;
                    }
                }
            }
        }
    } else {
        if (input[114] > 0.10000000000000002) {
            if (input[431] <= -0.9514254197006918) {
                if (input[531] <= -1.2383478736784943) {
                    if (input[500] <= -1.0189740655987796) {
                        var6 = 0.005398300290899965;
                    } else {
                        if (input[265] <= -0.521719624709852) {
                            var6 = 0.0003802574379137974;
                        } else {
                            var6 = 0.0047134349607308446;
                        }
                    }
                } else {
                    if (input[531] <= -0.7048239968641586) {
                        var6 = -0.0017070581685513964;
                    } else {
                        if (input[161] <= -0.6897315017246565) {
                            var6 = -0.001862931824784751;
                        } else {
                            var6 = 0.0032265560335796727;
                        }
                    }
                }
            } else {
                if (input[96] <= -0.6103513961106429) {
                    if (input[326] <= -1.150072313135999) {
                        var6 = 0.00162943193132136;
                    } else {
                        if (input[130] <= -0.20882962335810526) {
                            var6 = -0.0017909400364486561;
                        } else {
                            var6 = 0.0009453970351653191;
                        }
                    }
                } else {
                    if (input[90] <= -0.415738588184905) {
                        var6 = -0.0031311376572046756;
                    } else {
                        if (input[528] > 0.340267023638764) {
                            if (input[540] <= -0.140638185712461) {
                                var6 = -0.0017157958887656802;
                            } else {
                                var6 = 0.0010896740630016734;
                            }
                        } else {
                            var6 = -0.002261795618949583;
                        }
                    }
                }
            }
        } else {
            if (input[81] <= -1.6745800346889705) {
                var6 = 0.00416869887399753;
            } else {
                if (input[270] > 0.3229270073930267) {
                    if (input[335] > 0.4474475388285699) {
                        var6 = 0.0015814312404735112;
                    } else {
                        if (input[388] > 0.573403525462549) {
                            var6 = 0.002897259323484315;
                        } else {
                            var6 = -0.0004357688083196615;
                        }
                    }
                } else {
                    if (input[111] <= -0.39746551706920946) {
                        if (input[400] > 0.2859761062633946) {
                            var6 = 0.0027210875477218155;
                        } else {
                            var6 = -0.00010669233765448811;
                        }
                    } else {
                        if (input[285] > 0.2885673367494414) {
                            if (input[218] <= -0.07829027289008006) {
                                var6 = -0.0010911912266711218;
                            } else {
                                var6 = 0.0014983701621549706;
                            }
                        } else {
                            var6 = -0.0018110906159523688;
                        }
                    }
                }
            }
        }
    }
    double var7;
    if (input[189] <= -0.36666666666666664) {
        if (input[144] <= -0.9666666666666666) {
            if (input[469] <= -0.9666666666666666) {
                if (input[184] <= -1.4999999999999998) {
                    var7 = 0.01234662519158849;
                } else {
                    var7 = 0.008029245193269472;
                }
            } else {
                if (input[264] <= -0.8333333333333333) {
                    var7 = 0.006431429735572519;
                } else {
                    var7 = 0.0027793756541617553;
                }
            }
        } else {
            if (input[94] <= -0.6999999999999998) {
                if (input[331] <= -1.3834907721525498) {
                    var7 = 0.009778714137548442;
                } else {
                    if (input[380] > 0.9680435269219773) {
                        if (input[318] <= -0.27205667699863484) {
                            if (input[281] <= -0.07144091482657457) {
                                var7 = 0.007554883815568277;
                            } else {
                                var7 = 0.0029230187525714282;
                            }
                        } else {
                            var7 = 0.0072442615349966365;
                        }
                    } else {
                        if (input[308] <= -0.2901300865142968) {
                            var7 = 0.0010884934515351238;
                        } else {
                            var7 = 0.00402429600143406;
                        }
                    }
                }
            } else {
                if (input[469] <= -0.29999999999999993) {
                    if (input[548] <= -0.29131656488408825) {
                        var7 = 0.0009731253773203332;
                    } else {
                        var7 = 0.003148602656474143;
                    }
                } else {
                    if (input[436] <= -0.571314896502446) {
                        var7 = 0.003165736287337512;
                    } else {
                        if (input[165] > 0.21027484227513857) {
                            var7 = 0.0006111899333878567;
                        } else {
                            var7 = -0.0024194646990469163;
                        }
                    }
                }
            }
        }
    } else {
        if (input[526] <= -1.457286656124093) {
            if (input[56] <= -2.042655756434324) {
                var7 = 0.007041232457761309;
            } else {
                if (input[385] <= -0.523319725970569) {
                    var7 = 0.0011763035670731502;
                } else {
                    if (input[149] <= -0.000000000000000000000000000000000010000000180025095) {
                        var7 = 0.002069385162332381;
                    } else {
                        var7 = 0.008833411279662489;
                    }
                }
            }
        } else {
            if (input[114] > 0.10000000000000002) {
                if (input[191] <= -0.6299035155046507) {
                    if (input[115] <= -1.0125042328772271) {
                        var7 = 0.003128596231170909;
                    } else {
                        if (input[75] <= -0.21448449813117995) {
                            var7 = -0.0021848873849012215;
                        } else {
                            if (input[263] > 0.2367934359667027) {
                                var7 = 0.004996058852051763;
                            } else {
                                var7 = -0.00203245974997305;
                            }
                        }
                    }
                } else {
                    if (input[310] <= -0.441830011229646) {
                        if (input[133] > 0.6613139801375094) {
                            if (input[546] <= -0.2254571684366289) {
                                var7 = -0.00408769571791125;
                            } else {
                                var7 = -0.0008606496063229774;
                            }
                        } else {
                            var7 = -0.004721101628106356;
                        }
                    } else {
                        if (input[193] > 1.0194888464691463) {
                            var7 = 0.0033448680754258925;
                        } else {
                            if (input[78] > 0.5783744132134138) {
                                var7 = -0.0008414243936640608;
                            } else {
                                var7 = -0.003006916937942742;
                            }
                        }
                    }
                }
            } else {
                if (input[330] > 0.3545260335869738) {
                    if (input[108] > 0.08914880412336564) {
                        if (input[275] > 0.6684051731708603) {
                            var7 = 0.007913556521354947;
                        } else {
                            var7 = 0.002383895736049416;
                        }
                    } else {
                        var7 = -0.00007340595574214884;
                    }
                } else {
                    if (input[61] <= -0.6312238283324552) {
                        var7 = 0.0008867653005333622;
                    } else {
                        if (input[200] > 0.08906214936161654) {
                            if (input[193] > 0.6678581082542224) {
                                var7 = 0.004549812927668774;
                            } else {
                                var7 = -0.0010147849434180168;
                            }
                        } else {
                            var7 = -0.0024052980068399853;
                        }
                    }
                }
            }
        }
    }
    double var8;
    if (input[299] <= -0.36666666666666664) {
        if (input[334] <= -0.8999999999999999) {
            if (input[69] <= -1.2333333333333332) {
                var8 = 0.009926338572052185;
            } else {
                if (input[119] <= -0.8333333333333333) {
                    if (input[109] <= -1.0999999999999999) {
                        var8 = 0.008422871864088107;
                    } else {
                        if (input[55] > 1.2154240905242) {
                            var8 = 0.0046403408668798385;
                        } else {
                            var8 = 0.008439002854488755;
                        }
                    }
                } else {
                    if (input[443] <= -0.4381879927538978) {
                        var8 = 0.0012556841739001985;
                    } else {
                        var8 = 0.005057886351807166;
                    }
                }
            }
        } else {
            if (input[244] <= -0.49999999999999994) {
                if (input[338] > 2.075766866379579) {
                    var8 = 0.009233993020149921;
                } else {
                    if (input[85] > 1.1864290924192331) {
                        if (input[355] > 1.0267274591132325) {
                            var8 = 0.0059711790474198945;
                        } else {
                            var8 = 0.002887465505184835;
                        }
                    } else {
                        if (input[303] > 0.000000000000000000000000000000000010000000180025095) {
                            var8 = 0.004043404354436455;
                        } else {
                            if (input[505] > 0.6685463639196755) {
                                var8 = 0.00255698756386991;
                            } else {
                                var8 = -0.00019499048026603433;
                            }
                        }
                    }
                }
            } else {
                if (input[91] <= -0.6867103250134269) {
                    if (input[128] > 0.45667786637545443) {
                        var8 = 0.0022784825673237874;
                    } else {
                        var8 = 0.007978621769342876;
                    }
                } else {
                    var8 = 0.0003306853050354363;
                }
            }
        }
    } else {
        if (input[114] > 0.10000000000000002) {
            if (input[106] <= -0.9603002904610919) {
                if (input[316] <= -1.83293051988387) {
                    var8 = 0.0056692014357129505;
                } else {
                    if (input[161] <= -1.6298451532035012) {
                        var8 = 0.0038803287336233298;
                    } else {
                        if (input[350] <= -1.0391724611538098) {
                            var8 = 0.0033967471072048833;
                        } else {
                            var8 = -0.0011054161762893747;
                        }
                    }
                }
            } else {
                if (input[349] > 0.6071428571428573) {
                    if (input[198] > 0.9124018095365861) {
                        if (input[330] <= -0.5270609887668968) {
                            var8 = -0.0026705829559352445;
                        } else {
                            var8 = 0.002110301720005931;
                        }
                    } else {
                        var8 = -0.004268149704561386;
                    }
                } else {
                    if (input[348] > 0.26808703279291507) {
                        if (input[335] <= -0.2070368345807753) {
                            var8 = -0.0023368670642189976;
                        } else {
                            if (input[133] <= -0.05695981946969247) {
                                var8 = -0.002448869119446993;
                            } else {
                                var8 = 0.0016441032527842103;
                            }
                        }
                    } else {
                        var8 = -0.0029403973905813463;
                    }
                }
            }
        } else {
            if (input[480] > 0.48118849211396725) {
                if (input[146] <= -0.6038616313422114) {
                    var8 = 0.006123293028586244;
                } else {
                    if (input[60] > 0.8427471348405294) {
                        var8 = 0.003525156012851487;
                    } else {
                        var8 = 0.00039552166436647326;
                    }
                }
            } else {
                if (input[328] > 0.6508037690325786) {
                    if (input[420] > 0.12435076773669311) {
                        var8 = 0.004737890554821072;
                    } else {
                        if (input[406] <= -1.2482251635185817) {
                            var8 = 0.003027529117422535;
                        } else {
                            var8 = -0.0008906480730844236;
                        }
                    }
                } else {
                    if (input[170] > 0.4572693119092373) {
                        if (input[345] > 0.13428714319821355) {
                            var8 = 0.0017326576957888713;
                        } else {
                            var8 = -0.0019040222119931771;
                        }
                    } else {
                        if (input[161] <= -1.0624246281854177) {
                            var8 = 0.00363228007387171;
                        } else {
                            var8 = -0.0019673440303909695;
                        }
                    }
                }
            }
        }
    }
    double var9;
    if (input[299] <= -0.36666666666666664) {
        if (input[334] <= -0.8999999999999999) {
            if (input[69] <= -1.2333333333333332) {
                var9 = 0.006918794238078635;
            } else {
                if (input[119] <= -0.8333333333333333) {
                    var9 = 0.004669203562765161;
                } else {
                    if (input[443] <= -0.4381879927538978) {
                        var9 = 0.0008815399712286113;
                    } else {
                        var9 = 0.0035243090788235096;
                    }
                }
            }
        } else {
            if (input[244] <= -0.49999999999999994) {
                if (input[338] > 2.075766866379579) {
                    var9 = 0.006431443713412504;
                } else {
                    if (input[85] > 1.1864290924192331) {
                        var9 = 0.0033186292623379778;
                    } else {
                        if (input[303] > 0.000000000000000000000000000000000010000000180025095) {
                            var9 = 0.0028171869209891887;
                        } else {
                            if (input[505] > 0.6685463639196755) {
                                var9 = 0.0017843628939748202;
                            } else {
                                var9 = -0.00012916416843272594;
                            }
                        }
                    }
                }
            } else {
                if (input[91] <= -0.6867103250134269) {
                    if (input[128] > 0.45667786637545443) {
                        var9 = 0.0015905911338220803;
                    } else {
                        var9 = 0.005550023450453811;
                    }
                } else {
                    var9 = 0.0002318056593306931;
                }
            }
        }
    } else {
        if (input[114] > 0.10000000000000002) {
            if (input[431] <= -0.9514254197006918) {
                if (input[101] <= -1.6517080020038648) {
                    var9 = 0.00339747790367016;
                } else {
                    if (input[160] <= -0.40198422077463797) {
                        if (input[119] > 1.2333333333333336) {
                            var9 = 0.0032202208850745373;
                        } else {
                            if (input[341] <= -1.270380913553474) {
                                var9 = 0.0005598163429417605;
                            } else {
                                var9 = -0.002402336320230044;
                            }
                        }
                    } else {
                        var9 = 0.0024542043595148074;
                    }
                }
            } else {
                if (input[96] <= -0.6103513961106429) {
                    if (input[326] <= -1.150072313135999) {
                        var9 = 0.001553634856616374;
                    } else {
                        if (input[130] <= -0.20882962335810526) {
                            if (input[408] > 0.8557536060423246) {
                                var9 = -0.0006367222547804899;
                            } else {
                                var9 = -0.0026701860653801815;
                            }
                        } else {
                            if (input[305] <= -0.10033099679671764) {
                                var9 = 0.0031471528675617324;
                            } else {
                                var9 = -0.001222262186000711;
                            }
                        }
                    }
                } else {
                    if (input[90] <= -0.415738588184905) {
                        var9 = -0.0028790489777454163;
                    } else {
                        if (input[528] > 0.340267023638764) {
                            if (input[540] <= -0.140638185712461) {
                                var9 = -0.0015512194146468595;
                            } else {
                                var9 = 0.001092211907123813;
                            }
                        } else {
                            var9 = -0.002075253817433949;
                        }
                    }
                }
            }
        } else {
            if (input[480] > 0.48118849211396725) {
                if (input[146] <= -0.6038616313422114) {
                    var9 = 0.004257047308408297;
                } else {
                    if (input[60] > 0.8427471348405294) {
                        var9 = 0.0024517805472504192;
                    } else {
                        var9 = 0.00027659568618681763;
                    }
                }
            } else {
                if (input[353] > 0.681240084991173) {
                    if (input[391] <= -1.8387557702646837) {
                        var9 = 0.003922968202875876;
                    } else {
                        if (input[110] > 0.20700265802476062) {
                            var9 = 0.002969991995603501;
                        } else {
                            var9 = -0.00005330940899470137;
                        }
                    }
                } else {
                    if (input[270] > 0.3824722967926852) {
                        if (input[335] > 0.3318105744587944) {
                            var9 = 0.0013810862448764237;
                        } else {
                            var9 = -0.0007009874340130653;
                        }
                    } else {
                        if (input[111] <= -0.39746551706920946) {
                            var9 = -0.00007641142355007184;
                        } else {
                            var9 = -0.0015943657282083098;
                        }
                    }
                }
            }
        }
    }
    double var10;
    if (input[124] <= -0.49999999999999994) {
        if (input[164] <= -0.8999999999999999) {
            if (input[55] > 2.187732897855899) {
                var10 = 0.008128416116598312;
            } else {
                if (input[511] <= -0.28230089626668275) {
                    if (input[249] <= -1.033333333333333) {
                        var10 = 0.008764160275271667;
                    } else {
                        var10 = 0.005177857502927328;
                    }
                } else {
                    if (input[100] > 1.6407068714985351) {
                        var10 = 0.005331658598470829;
                    } else {
                        var10 = 0.002902477788963267;
                    }
                }
            }
        } else {
            if (input[244] <= -0.6333333333333332) {
                if (input[206] <= -1.2281031465762038) {
                    var10 = 0.0073228858881514034;
                } else {
                    if (input[390] > 1.0517180156062267) {
                        var10 = 0.004014720374696679;
                    } else {
                        if (input[98] <= -0.39388505788187594) {
                            var10 = 0.00027359508117893273;
                        } else {
                            var10 = 0.0028384834637232583;
                        }
                    }
                }
            } else {
                if (input[209] <= -0.4333333333333333) {
                    if (input[533] <= -0.25562662622652726) {
                        var10 = 0.000789627967984151;
                    } else {
                        if (input[285] > 0.630146163659559) {
                            if (input[108] <= -0.061485436124487695) {
                                var10 = 0.002754127015339421;
                            } else {
                                var10 = 0.008332746310239076;
                            }
                        } else {
                            var10 = 0.0017646354076651695;
                        }
                    }
                } else {
                    if (input[56] <= -0.7622245570045069) {
                        var10 = 0.003193468763730619;
                    } else {
                        var10 = -0.000457498893599926;
                    }
                }
            }
        }
    } else {
        if (input[114] > 0.10000000000000002) {
            if (input[531] <= -1.2383478736784943) {
                if (input[116] <= -0.9672085663111852) {
                    var10 = 0.0030144064839927203;
                } else {
                    var10 = -0.002136290765936262;
                }
            } else {
                if (input[191] <= -0.6299035155046507) {
                    if (input[245] <= -0.11195297199549359) {
                        var10 = -0.001157324940860479;
                    } else {
                        var10 = 0.0029473715106223615;
                    }
                } else {
                    if (input[160] <= -0.42273336845961046) {
                        if (input[408] > 0.9582628614927564) {
                            if (input[351] <= -0.06790683665437967) {
                                var10 = -0.0029174803631602433;
                            } else {
                                var10 = 0.0003892949691300309;
                            }
                        } else {
                            var10 = -0.0034998554249098023;
                        }
                    } else {
                        if (input[348] > 0.3959429945761754) {
                            if (input[183] > 0.8352897912648926) {
                                var10 = 0.0016188596856354354;
                            } else {
                                var10 = -0.0013605740888164646;
                            }
                        } else {
                            if (input[180] <= -0.44995254914424593) {
                                var10 = -0.003940423091352318;
                            } else {
                                var10 = -0.002081744719382822;
                            }
                        }
                    }
                }
            }
        } else {
            if (input[481] <= -0.743784809663104) {
                if (input[230] > 0.06473462459763069) {
                    var10 = 0.0036023261806340887;
                } else {
                    if (input[256] <= -1.374751710399501) {
                        var10 = 0.003294667036885141;
                    } else {
                        var10 = -0.00042773580355024625;
                    }
                }
            } else {
                if (input[270] > 0.3229270073930267) {
                    if (input[518] > 0.11180244455505783) {
                        if (input[155] > 0.7076684245220832) {
                            var10 = 0.0049767536879980895;
                        } else {
                            var10 = 0.0012036499274923269;
                        }
                    } else {
                        if (input[335] > 0.4170248666085852) {
                            var10 = 0.0010354751062921531;
                        } else {
                            var10 = -0.0008121519839216262;
                        }
                    }
                } else {
                    if (input[101] <= -0.245055572364931) {
                        var10 = 0.00010296213600721722;
                    } else {
                        if (input[435] <= -0.012762881206589282) {
                            var10 = -0.0025354042483002933;
                        } else {
                            var10 = -0.0008968953593012462;
                        }
                    }
                }
            }
        }
    }
    double var11;
    if (input[299] <= -0.36666666666666664) {
        if (input[144] <= -0.9666666666666666) {
            if (input[469] <= -0.9666666666666666) {
                if (input[184] <= -1.4999999999999998) {
                    var11 = 0.007226261029714311;
                } else {
                    var11 = 0.004673297560323063;
                }
            } else {
                if (input[404] <= -0.6333333333333332) {
                    var11 = 0.0033959755790722553;
                } else {
                    var11 = 0.0005588489074870491;
                }
            }
        } else {
            if (input[394] <= -0.6333333333333332) {
                if (input[266] <= -1.4893365617760297) {
                    var11 = 0.0062855769636745145;
                } else {
                    if (input[235] > 0.8670087183922303) {
                        if (input[173] <= -0.18534494769873464) {
                            var11 = 0.002257532094433255;
                        } else {
                            var11 = 0.00405161284972303;
                        }
                    } else {
                        var11 = 0.0013575213859375386;
                    }
                }
            } else {
                if (input[163] > 0.3066398123419735) {
                    if (input[50] > 0.7591126257383641) {
                        var11 = 0.004913700055446168;
                    } else {
                        var11 = 0.001696906116726429;
                    }
                } else {
                    if (input[75] > 0.3727757274410834) {
                        if (input[433] <= -0.15029590069284074) {
                            var11 = 0.000242975699841227;
                        } else {
                            if (input[526] > 0.026775387651542595) {
                                var11 = 0.0008196377445611632;
                            } else {
                                var11 = 0.004620271991719544;
                            }
                        }
                    } else {
                        var11 = -0.0005281652425716938;
                    }
                }
            }
        }
    } else {
        if (input[114] > 0.10000000000000002) {
            if (input[431] <= -0.9514254197006918) {
                if (input[101] <= -1.6517080020038648) {
                    var11 = 0.002944734937055147;
                } else {
                    if (input[160] <= -0.36846895714560596) {
                        if (input[119] > 1.2333333333333336) {
                            var11 = 0.0028090807060464668;
                        } else {
                            if (input[341] <= -1.270380913553474) {
                                var11 = 0.0004954945612098555;
                            } else {
                                var11 = -0.0020053941698879732;
                            }
                        }
                    } else {
                        var11 = 0.0023221360375453256;
                    }
                }
            } else {
                if (input[96] <= -0.6103513961106429) {
                    if (input[326] <= -1.150072313135999) {
                        var11 = 0.0013902205301209649;
                    } else {
                        if (input[130] <= -0.20882962335810526) {
                            if (input[408] > 0.8557536060423246) {
                                var11 = -0.0005580855081299815;
                            } else {
                                var11 = -0.0023012197945508073;
                            }
                        } else {
                            var11 = 0.0008576808036004193;
                        }
                    }
                } else {
                    if (input[90] <= -0.415738588184905) {
                        var11 = -0.0025063183609140777;
                    } else {
                        if (input[528] > 0.340267023638764) {
                            if (input[540] <= -0.140638185712461) {
                                var11 = -0.0013517478135300237;
                            } else {
                                var11 = 0.0009774617368601265;
                            }
                        } else {
                            var11 = -0.0017924268978868891;
                        }
                    }
                }
            }
        } else {
            if (input[81] <= -1.6745800346889705) {
                var11 = 0.0033583423294235686;
            } else {
                if (input[270] > 0.3229270073930267) {
                    if (input[83] > 0.6863018010002918) {
                        var11 = 0.0029464736014036563;
                    } else {
                        if (input[335] > 0.17855199434075184) {
                            var11 = 0.0009136270798110629;
                        } else {
                            var11 = -0.0009356649928719324;
                        }
                    }
                } else {
                    if (input[111] <= -0.39746551706920946) {
                        if (input[400] > 0.2859761062633946) {
                            var11 = 0.0022508022374700194;
                        } else {
                            var11 = -0.00010256738179243086;
                        }
                    } else {
                        if (input[285] > 0.2885673367494414) {
                            if (input[218] <= -0.07829027289008006) {
                                var11 = -0.0008682709056280029;
                            } else {
                                var11 = 0.0012694968314567957;
                            }
                        } else {
                            var11 = -0.0014632169259337355;
                        }
                    }
                }
            }
        }
    }
    double var12;
    if (input[189] <= -0.36666666666666664) {
        if (input[244] <= -0.7666666666666665) {
            if (input[114] <= -1.0999999999999999) {
                if (input[80] > 2.5728192766650424) {
                    var12 = 0.01073099144423407;
                } else {
                    if (input[438] <= -0.1650079882838504) {
                        var12 = 0.005888866752439864;
                    } else {
                        var12 = 0.008922920124159206;
                    }
                }
            } else {
                if (input[338] > 2.075766866379579) {
                    var12 = 0.009697312668845898;
                } else {
                    if (input[255] > 1.0529783044400554) {
                        if (input[530] > 1.8327713551701985) {
                            var12 = 0.00784098530373439;
                        } else {
                            var12 = 0.0041865195888965935;
                        }
                    } else {
                        var12 = 0.0023091230517984663;
                    }
                }
            }
        } else {
            if (input[524] <= -0.36666666666666664) {
                if (input[533] <= -0.32527657395004306) {
                    if (input[320] > 1.068278001884665) {
                        var12 = 0.0031028271298669365;
                    } else {
                        var12 = 0.00022110926771960797;
                    }
                } else {
                    if (input[308] <= -0.43023752848259306) {
                        var12 = 0.0015290504743630385;
                    } else {
                        if (input[415] > 0.3492379899799572) {
                            var12 = 0.005833310899625918;
                        } else {
                            var12 = 0.0020798734106485025;
                        }
                    }
                }
            } else {
                if (input[191] <= -0.65975818893701) {
                    if (input[238] > 0.4327157827052332) {
                        var12 = 0.0002605867954345182;
                    } else {
                        var12 = 0.006315714238708895;
                    }
                } else {
                    var12 = -0.000290978620847098;
                }
            }
        }
    } else {
        if (input[526] <= -1.2052454015093506) {
            if (input[471] <= -1.2725869383446666) {
                if (input[175] <= -0.7902915528019185) {
                    if (input[370] <= -1.0181399587101099) {
                        var12 = 0.0054609299057468705;
                    } else {
                        var12 = -0.0006409859028282689;
                    }
                } else {
                    if (input[535] <= -0.7012119096380663) {
                        var12 = 0.008470152507909397;
                    } else {
                        var12 = 0.003743406056826141;
                    }
                }
            } else {
                var12 = -0.00001720325823711236;
            }
        } else {
            if (input[130] <= -0.031163722095464596) {
                if (input[191] <= -0.65975818893701) {
                    if (input[115] <= -1.0125042328772271) {
                        var12 = 0.003545197909843793;
                    } else {
                        if (input[529] > 0.23333333333333336) {
                            var12 = -0.002117626820365374;
                        } else {
                            var12 = 0.0006060683857498396;
                        }
                    }
                } else {
                    if (input[310] <= -0.40203618567498195) {
                        if (input[96] <= -0.6471740692031801) {
                            if (input[213] > 0.8845535184042472) {
                                var12 = -0.003663635872048044;
                            } else {
                                var12 = 0.00014155383407598294;
                            }
                        } else {
                            var12 = -0.004128105458194553;
                        }
                    } else {
                        if (input[193] > 1.0031727027683683) {
                            var12 = 0.0038530972590130625;
                        } else {
                            if (input[253] > 0.6693900305433501) {
                                var12 = -0.00036066331568805144;
                            } else {
                                var12 = -0.002838056903177491;
                            }
                        }
                    }
                }
            } else {
                if (input[330] > 0.3545260335869738) {
                    if (input[108] > 0.1312817672449806) {
                        if (input[515] > 0.18520832161762854) {
                            var12 = 0.005203424402960274;
                        } else {
                            var12 = -0.00029511440955253253;
                        }
                    } else {
                        var12 = 0.0003132464190403521;
                    }
                } else {
                    if (input[143] <= -0.000000000000000000000000000000000010000000180025095) {
                        var12 = -0.0019608041344970064;
                    } else {
                        if (input[480] > 0.48118849211396725) {
                            var12 = 0.004051104741378016;
                        } else {
                            if (input[303] > 0.4294139839446755) {
                                var12 = 0.0016350568711094573;
                            } else {
                                var12 = -0.0012036574178093886;
                            }
                        }
                    }
                }
            }
        }
    }
    double var13;
    if (input[209] <= -0.4333333333333333) {
        if (input[144] <= -0.9666666666666666) {
            if (input[469] <= -0.9666666666666666) {
                if (input[184] <= -1.4999999999999998) {
                    var13 = 0.010946521959800044;
                } else {
                    var13 = 0.0070609890597314665;
                }
            } else {
                if (input[291] <= -0.33900979311193813) {
                    var13 = 0.0073479147448869;
                } else {
                    if (input[384] <= -1.033333333333333) {
                        var13 = 0.006015050457810501;
                    } else {
                        var13 = 0.001972792939928242;
                    }
                }
            }
        } else {
            if (input[124] <= -0.49999999999999994) {
                if (input[206] <= -1.1659665288628323) {
                    var13 = 0.008063715717920559;
                } else {
                    if (input[390] > 1.0517180156062267) {
                        if (input[371] <= -0.05599399461176991) {
                            var13 = 0.00641620987564136;
                        } else {
                            var13 = 0.00326040552125367;
                        }
                    } else {
                        if (input[363] <= -0.2076893485098775) {
                            var13 = 0.0011589658597965938;
                        } else {
                            if (input[285] > 0.6951133266866067) {
                                var13 = 0.005552796627649718;
                            } else {
                                var13 = 0.0018641439149488005;
                            }
                        }
                    }
                }
            } else {
                if (input[508] > 1.7548843940663454) {
                    var13 = 0.0060633927617445;
                } else {
                    var13 = 0.0006978323519879686;
                }
            }
        }
    } else {
        if (input[179] <= -0.09999999999999999) {
            if (input[76] <= -1.6329126298603873) {
                var13 = 0.0058626744896432634;
            } else {
                if (input[240] > 0.7249702293563013) {
                    if (input[148] <= -0.2277874577230323) {
                        var13 = 0.000834774003990378;
                    } else {
                        var13 = 0.0048530207213204;
                    }
                } else {
                    if (input[153] <= -0.10223980175371718) {
                        var13 = -0.0011789550364421724;
                    } else {
                        if (input[185] <= -0.1845870185381304) {
                            var13 = -0.0016476641451832676;
                        } else {
                            if (input[168] <= -0.4507767503089463) {
                                var13 = -0.0015153238767447118;
                            } else {
                                var13 = 0.0017865670062395176;
                            }
                        }
                    }
                }
            }
        } else {
            if (input[231] <= -1.0024326652628006) {
                if (input[350] <= -1.0391724611538098) {
                    var13 = 0.005613198445151225;
                } else {
                    if (input[451] <= -1.5791851310803833) {
                        if (input[200] <= -0.6229821314937788) {
                            var13 = 0.0008274014395681583;
                        } else {
                            var13 = 0.005831536597077968;
                        }
                    } else {
                        if (input[300] <= -0.2914850888030866) {
                            var13 = -0.001431196170805665;
                        } else {
                            if (input[519] > 0.10714285714285715) {
                                var13 = 0.006091344203079923;
                            } else {
                                var13 = -0.00043902178211432507;
                            }
                        }
                    }
                }
            } else {
                if (input[114] > 0.000000000000000000000000000000000010000000180025095) {
                    if (input[96] <= -0.6103513961106429) {
                        if (input[545] <= -0.5572441554027686) {
                            if (input[379] > 1.1379310344827587) {
                                var13 = -0.0006997485196393828;
                            } else {
                                var13 = -0.003934969716192718;
                            }
                        } else {
                            if (input[379] > 0.5862068965517243) {
                                var13 = 0.0036939325455303466;
                            } else {
                                var13 = -0.001350037552572577;
                            }
                        }
                    } else {
                        if (input[320] <= -0.3776861515150946) {
                            if (input[191] <= -0.6728904943334727) {
                                var13 = -0.0012744991947013094;
                            } else {
                                var13 = -0.003963327183264134;
                            }
                        } else {
                            if (input[443] > 0.9062170821213335) {
                                var13 = 0.001497916748192701;
                            } else {
                                var13 = -0.0027521979462279285;
                            }
                        }
                    }
                } else {
                    if (input[518] > 0.22113821138211398) {
                        var13 = 0.0005880197591906888;
                    } else {
                        var13 = -0.001711064851812351;
                    }
                }
            }
        }
    }
    double var14;
    if (input[299] <= -0.36666666666666664) {
        if (input[254] <= -0.8999999999999999) {
            if (input[419] <= -1.0999999999999999) {
                if (input[344] <= -1.2333333333333332) {
                    var14 = 0.013893013005039078;
                } else {
                    if (input[263] <= -0.5333645875124526) {
                        var14 = 0.0052840436236684055;
                    } else {
                        var14 = 0.011148819025951827;
                    }
                }
            } else {
                if (input[414] <= -0.8999999999999999) {
                    if (input[138] <= -0.15108018129104034) {
                        var14 = 0.006293823809994355;
                    } else {
                        var14 = 0.01114251726126478;
                    }
                } else {
                    var14 = 0.004542627245432476;
                }
            }
        } else {
            if (input[441] <= -1.5755441637607979) {
                var14 = 0.010756382202723269;
            } else {
                if (input[235] > 0.8670087183922303) {
                    if (input[308] <= -0.0687999940692854) {
                        if (input[394] <= -0.6333333333333332) {
                            var14 = 0.0053793570994303454;
                        } else {
                            var14 = 0.001167699313858522;
                        }
                    } else {
                        if (input[113] <= -0.1393737879055007) {
                            var14 = 0.005295623031405365;
                        } else {
                            var14 = 0.011850456781490422;
                        }
                    }
                } else {
                    if (input[183] <= -0.23321502264150332) {
                        if (input[374] <= -0.000000000000000000000000000000000010000000180025095) {
                            var14 = 0.00019947763072068059;
                        } else {
                            var14 = -0.004884734855517806;
                        }
                    } else {
                        if (input[329] > 0.10714285714285715) {
                            var14 = -0.0027558641820012502;
                        } else {
                            if (input[118] <= -0.17246388610271327) {
                                var14 = 0.0008304182562279388;
                            } else {
                                var14 = 0.004580950582654517;
                            }
                        }
                    }
                }
            }
        }
    } else {
        if (input[484] <= -0.09999999999999999) {
            if (input[275] > 0.1975758345579843) {
                if (input[518] > 0.26718264357784827) {
                    if (input[296] > 0.010809699314937674) {
                        var14 = 0.009399559113215567;
                    } else {
                        var14 = 0.0027267079944386257;
                    }
                } else {
                    var14 = 0.0006958283178950175;
                }
            } else {
                if (input[63] > 0.5726661452816244) {
                    var14 = 0.002234773605123288;
                } else {
                    var14 = -0.002041663529548068;
                }
            }
        } else {
            if (input[191] <= -0.65975818893701) {
                if (input[316] <= -1.7622165261704987) {
                    var14 = 0.00587789959306819;
                } else {
                    if (input[430] <= -0.19419125341229468) {
                        if (input[115] <= -0.9864252730798082) {
                            if (input[398] > 1.838281372678409) {
                                var14 = -0.001646565186903644;
                            } else {
                                var14 = 0.008266314130773757;
                            }
                        } else {
                            var14 = -0.0019080851755418691;
                        }
                    } else {
                        if (input[428] > 0.16753155680224388) {
                            if (input[151] <= -0.6488970166951465) {
                                var14 = 0.00032216398668719575;
                            } else {
                                var14 = 0.007999495786259789;
                            }
                        } else {
                            var14 = -0.002696786617930476;
                        }
                    }
                }
            } else {
                if (input[330] <= -0.14000187950654402) {
                    if (input[503] > 0.8556343780681798) {
                        if (input[140] <= -0.7850866826610924) {
                            var14 = -0.005316304099336454;
                        } else {
                            if (input[253] > 0.6837539879599333) {
                                var14 = 0.0026449372032966785;
                            } else {
                                var14 = -0.0036274195527425603;
                            }
                        }
                    } else {
                        if (input[90] <= -0.6572860547099196) {
                            var14 = -0.006478361009346303;
                        } else {
                            var14 = -0.004213906867357034;
                        }
                    }
                } else {
                    if (input[505] > 0.6123890119056504) {
                        var14 = 0.002835307859494444;
                    } else {
                        if (input[373] > 0.04481218686039918) {
                            var14 = -0.000730788324020296;
                        } else {
                            var14 = -0.0031404345357208398;
                        }
                    }
                }
            }
        }
    }
    double var15;
    if (input[154] <= -0.29999999999999993) {
        if (input[244] <= -0.7666666666666665) {
            if (input[454] <= -1.033333333333333) {
                if (input[80] > 2.3290432592292736) {
                    var15 = 0.007179822429650404;
                } else {
                    if (input[263] <= -0.6201765669879643) {
                        var15 = 0.0023469910843064933;
                    } else {
                        var15 = 0.005470662994245715;
                    }
                }
            } else {
                if (input[494] <= -1.0999999999999999) {
                    if (input[161] <= -0.0670404339534123) {
                        var15 = 0.0062550992704386455;
                    } else {
                        var15 = 0.0033804801177614477;
                    }
                } else {
                    if (input[148] <= -0.5160091486477966) {
                        if (input[60] > 1.673440695182937) {
                            var15 = 0.003393446676405442;
                        } else {
                            var15 = 0.0004168598706603454;
                        }
                    } else {
                        var15 = 0.003016266814017283;
                    }
                }
            }
        } else {
            if (input[285] > 0.7648430803685043) {
                if (input[258] <= -0.09017905518718218) {
                    var15 = 0.0014665508168914714;
                } else {
                    if (input[453] <= -0.3636324228202596) {
                        var15 = 0.0015846588373880158;
                    } else {
                        var15 = 0.004624428877110473;
                    }
                }
            } else {
                if (input[198] <= -0.21314277622688826) {
                    if (input[205] > 0.29804857728787487) {
                        var15 = 0.0003162939377820868;
                    } else {
                        var15 = -0.0015261820225924406;
                    }
                } else {
                    if (input[275] > 0.35312116398295884) {
                        if (input[508] <= -0.0849209449246811) {
                            var15 = 0.000846847977081401;
                        } else {
                            var15 = 0.003143677137354113;
                        }
                    } else {
                        if (input[316] <= -1.3846778701937588) {
                            var15 = 0.00327741694904925;
                        } else {
                            var15 = 0.000020726770870472403;
                        }
                    }
                }
            }
        }
    } else {
        if (input[191] <= -0.65975818893701) {
            if (input[316] <= -1.83293051988387) {
                var15 = 0.003383287479718718;
            } else {
                if (input[210] <= -0.203465673564919) {
                    if (input[161] <= -1.6298451532035012) {
                        var15 = 0.0018896668064000313;
                    } else {
                        if (input[115] <= -1.0426915214142578) {
                            var15 = 0.0019677598537699284;
                        } else {
                            var15 = -0.0011148573051920573;
                        }
                    }
                } else {
                    if (input[256] <= -0.3386580922762101) {
                        if (input[193] > 1.1288466290393502) {
                            var15 = 0.00006533846711494441;
                        } else {
                            if (input[164] <= -0.2333333333333333) {
                                var15 = 0.0012252927168817846;
                            } else {
                                var15 = 0.004827431639096216;
                            }
                        }
                    } else {
                        var15 = -0.00041990906750438717;
                    }
                }
            }
        } else {
            if (input[330] <= -0.148008041987786) {
                if (input[171] <= -1.1080195215042388) {
                    var15 = 0.0015861178799343742;
                } else {
                    if (input[303] > 1.8415458382842098) {
                        var15 = 0.0014287619669380081;
                    } else {
                        if (input[160] <= -0.4105910652820975) {
                            var15 = -0.00264258974629801;
                        } else {
                            if (input[253] > 0.6918795564082167) {
                                var15 = -0.00010570419717708738;
                            } else {
                                var15 = -0.0019951853221591843;
                            }
                        }
                    }
                }
            } else {
                if (input[110] <= -0.003223372041468804) {
                    if (input[208] <= -0.0007745006806961638) {
                        var15 = -0.002027945087688218;
                    } else {
                        if (input[344] > 0.5000000000000001) {
                            var15 = 0.0022857417699907456;
                        } else {
                            var15 = -0.0009090203076891361;
                        }
                    }
                } else {
                    if (input[108] > 0.08363302081630909) {
                        if (input[495] > 0.15424001430703732) {
                            var15 = 0.0027136728131707355;
                        } else {
                            var15 = -0.00041271541033836867;
                        }
                    } else {
                        var15 = -0.0005023623849617238;
                    }
                }
            }
        }
    }
    double var16;
    if (input[189] <= -0.36666666666666664) {
        if (input[144] <= -0.9666666666666666) {
            if (input[469] <= -0.9666666666666666) {
                if (input[184] <= -1.4999999999999998) {
                    var16 = 0.0064677604760510895;
                } else {
                    var16 = 0.004159358813189954;
                }
            } else {
                if (input[404] <= -0.6333333333333332) {
                    var16 = 0.0029284372713179797;
                } else {
                    var16 = 0.0004306853145081884;
                }
            }
        } else {
            if (input[94] <= -0.6999999999999998) {
                if (input[331] <= -1.3834907721525498) {
                    var16 = 0.005237510946976177;
                } else {
                    if (input[380] > 0.9680435269219773) {
                        if (input[318] <= -0.27205667699863484) {
                            if (input[281] <= -0.07144091482657457) {
                                var16 = 0.004109752898446712;
                            } else {
                                var16 = 0.0014190296676511226;
                            }
                        } else {
                            var16 = 0.0039154312796603995;
                        }
                    } else {
                        if (input[308] <= -0.2901300865142968) {
                            var16 = 0.0004672700474536244;
                        } else {
                            var16 = 0.0021069683144981613;
                        }
                    }
                }
            } else {
                if (input[160] > 0.9562992141563886) {
                    if (input[548] <= -0.04563581992282475) {
                        var16 = 0.0012475528602853374;
                    } else {
                        var16 = 0.004211181337631966;
                    }
                } else {
                    if (input[196] <= -0.6111375625781202) {
                        if (input[361] <= -0.41849414972592586) {
                            var16 = 0.0009392989319879109;
                        } else {
                            var16 = 0.003620146437051917;
                        }
                    } else {
                        var16 = 0.00011551658028870478;
                    }
                }
            }
        }
    } else {
        if (input[526] <= -1.457286656124093) {
            if (input[56] <= -2.042655756434324) {
                var16 = 0.00380944736090387;
            } else {
                if (input[385] <= -0.523319725970569) {
                    var16 = 0.0005420822970260749;
                } else {
                    if (input[149] <= -0.000000000000000000000000000000000010000000180025095) {
                        var16 = 0.0010433526722632106;
                    } else {
                        var16 = 0.005016718509056989;
                    }
                }
            }
        } else {
            if (input[334] > 0.000000000000000000000000000000000010000000180025095) {
                if (input[96] <= -0.6471740692031801) {
                    if (input[474] > 1.6333333333333335) {
                        var16 = 0.002658733664340331;
                    } else {
                        if (input[545] <= -0.5572441554027686) {
                            var16 = -0.0013280725463767217;
                        } else {
                            if (input[91] <= -0.8123126676407154) {
                                var16 = 0.0019056233942936498;
                            } else {
                                var16 = -0.0006281137270997434;
                            }
                        }
                    }
                } else {
                    if (input[320] <= -0.2693147494936698) {
                        if (input[66] <= -1.0326853424175515) {
                            var16 = 0.0005117486359569347;
                        } else {
                            var16 = -0.0021058535750049985;
                        }
                    } else {
                        if (input[193] > 0.48186497615203555) {
                            if (input[305] <= -0.3434021185949144) {
                                var16 = -0.0016630628490090715;
                            } else {
                                var16 = 0.0010464697906140308;
                            }
                        } else {
                            if (input[253] > 0.659009060706735) {
                                var16 = 0.0003906161938499532;
                            } else {
                                var16 = -0.0015182142574325325;
                            }
                        }
                    }
                }
            } else {
                if (input[270] > 0.33990083442486974) {
                    if (input[478] > 0.02412491414800565) {
                        if (input[188] <= -0.05389479299657677) {
                            var16 = 0.0003071874260265124;
                        } else {
                            if (input[213] > 0.27659364989406676) {
                                var16 = 0.0011321123600287846;
                            } else {
                                var16 = 0.004168458319636088;
                            }
                        }
                    } else {
                        var16 = 0.00009647559506459181;
                    }
                } else {
                    if (input[188] > 0.07409801811565683) {
                        if (input[530] > 0.39841441875401384) {
                            var16 = 0.001973895583475564;
                        } else {
                            var16 = -0.00021456342069797168;
                        }
                    } else {
                        var16 = -0.001070889081460115;
                    }
                }
            }
        }
    }
    double var17;
    if (input[384] <= -0.49999999999999994) {
        if (input[349] <= -0.8928571428571427) {
            if (input[509] <= -1.2333333333333332) {
                var17 = 0.008067725123956928;
            } else {
